digraph Tree {
node [shape=box, style="filled, rounded", color="black", fontname="helvetica"] ;
edge [fontname="helvetica"] ;
0 [label="cylinders <= 5.0\nsquared_error = 356707888.927\nsamples = 881\nvalue = 50098.76", fillcolor="#f9e4d5"] ;
1 [label="doors <= 3.5\nsquared_error = 144651535.529\nsamples = 466\nvalue = 40492.438", fillcolor="#fcf3eb"] ;
0 -> 1 [labeldistance=2.5, labelangle=45, headlabel="True"] ;
2 [label="doors <= 2.5\nsquared_error = 107201492.472\nsamples = 6\nvalue = 60443.167", fillcolor="#f6d4bc"] ;
1 -> 2 ;
3 [label="squared_error = 0.0\nsamples = 1\nvalue = 38040.0", fillcolor="#fdf6f1"] ;
2 -> 3 ;
4 [label="mileage <= 9.0\nsquared_error = 8185340.56\nsamples = 5\nvalue = 64923.8", fillcolor="#f5ceb1"] ;
2 -> 4 ;
5 [label="mileage <= 4.0\nsquared_error = 2007889.0\nsamples = 2\nvalue = 63712.0", fillcolor="#f5cfb4"] ;
4 -> 5 ;
6 [label="squared_error = 0.0\nsamples = 1\nvalue = 65129.0", fillcolor="#f5cdb1"] ;
5 -> 6 ;
7 [label="squared_error = 0.0\nsamples = 1\nvalue = 62295.0", fillcolor="#f6d1b7"] ;
5 -> 7 ;
8 [label="squared_error = 10672020.222\nsamples = 3\nvalue = 65731.667", fillcolor="#f5ccaf"] ;
4 -> 8 ;
9 [label="cylinders <= 1.5\nsquared_error = 139880580.006\nsamples = 460\nvalue = 40232.211", fillcolor="#fdf3ec"] ;
1 -> 9 ;
10 [label="year <= 2023.5\nsquared_error = 14478025.0\nsamples = 2\nvalue = 66045.0", fillcolor="#f4ccaf"] ;
9 -> 10 ;
11 [label="squared_error = 0.0\nsamples = 1\nvalue = 62240.0", fillcolor="#f6d2b8"] ;
10 -> 11 ;
12 [label="squared_error = 0.0\nsamples = 1\nvalue = 69850.0", fillcolor="#f3c6a6"] ;
10 -> 12 ;
13 [label="cylinders <= 3.5\nsquared_error = 137505876.359\nsamples = 458\nvalue = 40119.491", fillcolor="#fdf3ec"] ;
9 -> 13 ;
14 [label="mileage <= 4.5\nsquared_error = 10719193.806\nsamples = 26\nvalue = 33093.962", fillcolor="#fffefd"] ;
13 -> 14 ;
15 [label="squared_error = 8799628.612\nsamples = 11\nvalue = 34092.545", fillcolor="#fefcfb"] ;
14 -> 15 ;
16 [label="squared_error = 10859361.289\nsamples = 15\nvalue = 32361.667", fillcolor="#ffffff"] ;
14 -> 16 ;
17 [label="mileage <= 5.5\nsquared_error = 141987144.284\nsamples = 432\nvalue = 40542.324", fillcolor="#fcf2eb"] ;
13 -> 17 ;
18 [label="squared_error = 127435503.739\nsamples = 186\nvalue = 42423.215", fillcolor="#fcf0e7"] ;
17 -> 18 ;
19 [label="squared_error = 148292245.518\nsamples = 246\nvalue = 39120.187", fillcolor="#fdf5ef"] ;
17 -> 19 ;
20 [label="year <= 2023.5\nsquared_error = 374845810.766\nsamples = 415\nvalue = 60885.619", fillcolor="#f6d4bb"] ;
0 -> 20 [labeldistance=2.5, labelangle=-45, headlabel="False"] ;
21 [label="mileage <= 141.0\nsquared_error = 156850097.264\nsamples = 66\nvalue = 50318.909", fillcolor="#f9e4d4"] ;
20 -> 21 ;
22 [label="doors <= 3.5\nsquared_error = 59164623.901\nsamples = 61\nvalue = 47775.033", fillcolor="#fae7da"] ;
21 -> 22 ;
23 [label="mileage <= 2.5\nsquared_error = 34233045.36\nsamples = 5\nvalue = 59032.2", fillcolor="#f7d6bf"] ;
22 -> 23 ;
24 [label="squared_error = 4579600.0\nsamples = 2\nvalue = 52385.0", fillcolor="#f9e1cf"] ;
23 -> 24 ;
25 [label="squared_error = 4907266.889\nsamples = 3\nvalue = 63463.667", fillcolor="#f5d0b5"] ;
23 -> 25 ;
26 [label="cylinders <= 7.0\nsquared_error = 49065796.995\nsamples = 56\nvalue = 46769.929", fillcolor="#fae9dc"] ;
22 -> 26 ;
27 [label="squared_error = 93086093.423\nsamples = 18\nvalue = 43378.278", fillcolor="#fceee5"] ;
26 -> 27 ;
28 [label="squared_error = 20184076.618\nsamples = 38\nvalue = 48376.5", fillcolor="#fae7d9"] ;
26 -> 28 ;
29 [label="doors <= 3.5\nsquared_error = 306473649.36\nsamples = 5\nvalue = 81354.2", fillcolor="#f0b58a"] ;
21 -> 29 ;
30 [label="squared_error = 0.0\nsamples = 1\nvalue = 57000.0", fillcolor="#f7dac4"] ;
29 -> 30 ;
31 [label="mileage <= 451.0\nsquared_error = 197739856.188\nsamples = 4\nvalue = 87442.75", fillcolor="#eeab7c"] ;
29 -> 31 ;
32 [label="squared_error = 22686169.0\nsamples = 2\nvalue = 76762.0", fillcolor="#f1bc95"] ;
31 -> 32 ;
33 [label="squared_error = 144636702.25\nsamples = 2\nvalue = 98123.5", fillcolor="#ea9b62"] ;
31 -> 33 ;
34 [label="doors <= 3.5\nsquared_error = 390962861.04\nsamples = 349\nvalue = 62883.908", fillcolor="#f5d1b6"] ;
20 -> 34 ;
35 [label="mileage <= 72.0\nsquared_error = 88870667.769\nsamples = 31\nvalue = 53487.194", fillcolor="#f8dfcc"] ;
34 -> 35 ;
36 [label="year <= 2024.5\nsquared_error = 54134675.149\nsamples = 26\nvalue = 50677.654", fillcolor="#f9e3d3"] ;
35 -> 36 ;
37 [label="squared_error = 24923418.25\nsamples = 24\nvalue = 52213.5", fillcolor="#f9e1cf"] ;
36 -> 37 ;
38 [label="squared_error = 36693306.25\nsamples = 2\nvalue = 32247.5", fillcolor="#ffffff"] ;
36 -> 38 ;
39 [label="mileage <= 133.0\nsquared_error = 15010959.36\nsamples = 5\nvalue = 68096.8", fillcolor="#f4c9aa"] ;
35 -> 39 ;
40 [label="squared_error = 0.0\nsamples = 1\nvalue = 74391.0", fillcolor="#f2bf9b"] ;
39 -> 40 ;
41 [label="squared_error = 6383401.188\nsamples = 4\nvalue = 66523.25", fillcolor="#f4cbad"] ;
39 -> 41 ;
42 [label="mileage <= 395.5\nsquared_error = 410965294.616\nsamples = 318\nvalue = 63799.94", fillcolor="#f5cfb4"] ;
34 -> 42 ;
43 [label="mileage <= 1.5\nsquared_error = 398333946.413\nsamples = 312\nvalue = 63394.022", fillcolor="#f5d0b5"] ;
42 -> 43 ;
44 [label="squared_error = 833738751.894\nsamples = 40\nvalue = 68389.575", fillcolor="#f4c8a9"] ;
43 -> 44 ;
45 [label="squared_error = 330094198.758\nsamples = 272\nvalue = 62659.382", fillcolor="#f5d1b7"] ;
43 -> 45 ;
46 [label="mileage <= 489.5\nsquared_error = 613691284.556\nsamples = 6\nvalue = 84907.667", fillcolor="#efaf82"] ;
42 -> 46 ;
47 [label="squared_error = 0.0\nsamples = 1\nvalue = 115445.0", fillcolor="#e58139"] ;
46 -> 47 ;
48 [label="squared_error = 512622646.96\nsamples = 5\nvalue = 78800.2", fillcolor="#f0b890"] ;
46 -> 48 ;
}